GEN : 1 ; SCORE : 154.29999999999552 ; WEIGHTS : [[0.696300502927955, 0.3250028661475857, 0.17339526997870727, -0.46536529860383624, 0.05208167164416402], [0.06874388478945305, 0.7786243653985837, -0.18616829324744089, 0.35943458477613377, -0.3940155563878541], [-0.32646841993033493, 0.603330184316121, -0.24123127099168748, -0.5784313593819651, 0.21925502367693495], [0.7268919022718636, 0.6750221760451991, 0.03135687983251395, 0.17727330232298985, -0.893916279428431], [-0.26778793767628084, 0.20445301958914705, -0.35155301998432936, -0.3753610834389751, -0.22769125706098087], [0.36593409088659823, 0.524192800852552, -0.413383321130649, 0.5836482910603102, -0.37749568215734497], [-0.425874237353053, -0.28122622586981105, 0.3042740529026758, 1.0584405832275736, 0.22946071098768603]], [[-0.7420675452084046, -0.002409158409071388, -0.7938002532296466, 0.5037721763035538, -0.14392699624684394], [-0.1906554118776496, 0.7083378035714516, 0.20471334882204023, 0.8129842626248859, -0.12870094717634725], [-0.03114470600335457, 0.3737725972690876, -0.07203112256912236, 0.8089151681748918, 0.7492576022461893], [0.045012338876367505, 0.5568918515921968, 1.1733979165764044, -0.41889119100717714, 0.0964523693361016], [0.06565093739260221, -0.39517600019534116, 0.5150021937563004, -0.2531559691217282, -0.0383783080793417]], [[-0.22001006267945608, 0.07273423962577526, 0.2501082811132672], [0.14659319772924567, 0.3277451521649868, 0.03099370386182814], [-0.5064664235801929, -0.2926892445012094, -0.5238760662821247], [-0.22641842266592335, 0.40159768961411596, 0.9253818886693923], [0.13887414949473653, 1.0454529165958093, 0.9207373179078995]], [[-1.357440594537728, -0.16286545942392552, -0.1759542634556852], [0.43660807313053424, -0.08941262772901175, 0.4043984750923181], [-0.7399644327516068, 0.5666217536130499, 0.030061220383506636], [-0.11187147181787871, -0.0144223575366727, 0.31519856961594933], [-0.5076257298276394, -0.32919329529718416, -0.37954834336201065]]
GEN : 1 ; SCORE : 114.19999999999779 ; WEIGHTS : [[0.39333474766031246, -0.1066511735502969, -0.2143591656504315, -0.0999735992672275, -0.7084393137813373], [-0.2776265360838948, 0.5833052947587102, -0.28805174111928916, -0.3270897300952151, -0.5917161796093818], [-0.014160575593562453, 0.27276081399033436, -0.32121252308544745, 0.17710561727717267, 0.5534119558121938], [0.017777694072122138, -0.1233250067514334, -0.11445437353327637, -0.07273475629755581, -0.2045283204292986], [0.12494207724062806, -0.22420961626221272, -0.20531817604354546, 0.07093890918857729, -0.026182888121389435], [0.07063051313324832, -0.14311620400435257, 0.7376793274244999, 0.17090386698633123, 0.6291530051592664], [0.38080253113053364, -0.06813094357375912, -0.165092815336633, 0.25273847863478044, 0.721283593067276]], [[0.44818086305808136, 0.29739911522758194, 0.4471308691851707, -0.6137843290889198, -0.565917260957501], [0.13643801852984921, 0.19260916029934536, -0.0018095134800598259, -0.2313030702677961, -0.08753298405012544], [-0.06929686780862844, -0.025234798477584103, -1.0755376904888618, -0.25107727143220326, 0.1757084024113016], [1.510503826265576, 0.14720153097553765, -0.15122358908331135, -0.32394191614902496, 0.35984154661257334], [0.07307938931692912, -0.34765332416576816, 0.04312870780914487, 0.5297065965385481, 0.3227712034075427]], [[-0.2279874326836531, 0.08541266811198246, 0.5193859191852009], [0.08100926614483517, 0.7058329683465612, 0.8530982888231305], [0.3230716808735886, -0.35894368410382976, 1.051092269688779], [-0.08060649751521747, -0.19436407674680573, 0.4431982914982386], [-0.3167728511252927, -0.14272034250148383, 0.05055466424073254]], [[0.10091329914294216, 0.8195632886586697, 0.6453696756910088], [-0.4115563650993274, -0.5265613142567154, -0.650479496684327], [-0.21747528582309503, -0.4451065380679841, 0.17888067764615598], [-0.5712220670852661, 0.4406402261013308, 0.4032907899815973], [-0.6637216018767585, 0.205135727588241, -0.46949991202800917]]
GEN : 1 ; SCORE : 144.59999999999607 ; WEIGHTS : [[-0.869521698487591, -0.4477596581937454, 0.0372975667070005, -0.4412785005304187, 0.8365479809490618], [0.25188927594720145, 0.22661232623288677, 0.23056374678645478, -0.6059322595162531, -0.45026926223889063], [0.20142609873983558, -0.14316832581823177, 0.1477173052343004, 0.9328047671220935, -0.25036876958947524], [-0.9209540232899788, -0.20856450881170127, 0.45116070274867487, 0.1086156652714524, 0.062029518461214184], [0.3127466529070899, -0.06337383834200479, -0.1306628031656461, -0.10094366513904407, -0.25512519920570953], [0.11221512549201677, 0.17848754083134755, -0.3883387359433579, -0.23362975029358085, -0.034135772049735495], [0.08792314267656476, 0.35503214078176304, -0.08494118359861805, -0.1529907795745695, 0.27485923645520377]], [[-0.6474688501474651, -0.03171933755012493, 0.22934082584212112, -0.5537815100816945, -0.38831387481769886], [-0.18988038922970396, -0.27000064989350525, -0.19529977972639495, -0.3735935120932271, 0.07819455786763868], [-0.19120444765295708, -0.04035420223360995, -0.19826408636173168, -0.12700187456387751, -0.1965118411387156], [0.4717586999834711, 0.1956606290638328, -0.43327025347528997, -0.7452737734766983, 0.06952036532834917], [-0.4503565047553466, -0.4641508010574807, 0.20271918287815488, -0.5103104294870605, 0.03440187803672341]], [[-0.37086118632646914, 0.4320991456482964, -0.08202063968009317], [-0.21878942101300883, 1.2547840476582084, 0.10788076543900282], [0.4530185359086352, 0.006731768101926109, -0.6563537438669238], [0.2643290535645716, 0.7427422800734957, -0.2625386008136666], [1.1228183993418597, 0.04159958812802546, -0.6493870231767577]], [[-0.9610952625413964, -0.0168219906528388, 0.6188557348662299], [-0.49804103699236446, -0.15449337002690053, 0.23935895487857065], [0.6619910764396697, 0.5963820677252528, -0.06498600793491746], [0.34514165425085813, -0.3420810746423346, 0.5395682270895362], [-0.3807116617033232, 0.32854399137051676, 0.6137244219666663]]
